-0.0021,0.0420,-0.0254,0.0916,-0.0945,-0.0083,0.0029,0.0786,0.0534,-0.0858,0.0366,0.0619,-0.0846,-0.0748,-0.0745,0.0432,0.0545,-0.0793,0.0912,-0.0224,0.0283,0.0760,-0.3247,0.3407,0.3061,0.2594,-0.4029,-0.2339,-0.0985,0.0731,-0.0107,-0.0052,0.3349,0.3198,-0.3266,0.4692,0.3016,-0.2947,0.0493,-0.0133,0.0293,0.0449,0.3632,0.3939,-0.4759,-0.3470,-0.1926,-0.0576,-0.0188,-0.0344,-0.0883,0.0890,0.2632,0.2819,-0.4371,-0.1144,0.4574,0.0789,-0.0727,-0.0340,-0.0156,-0.0440,0.3503,0.3399,-0.3998,0.3737,0.2884,-0.0996,-0.0167,-0.0251,-0.0186,-0.0119,-0.4009,0.4237,0.2014,0.5983,0.2298,0.0453,-0.0974,-0.0174,0.0447,0.0776,-0.0442,-0.0703,0.0581,0.3773,0.2818,-0.0380,-0.0918,0.0093,-0.0298,0.0807,0.0610,-0.0374,-0.0131,0.0961,0.0608,0.0353,-0.0672,-0.0723
-0.0202,0.0155,-0.0887,0.0821,-0.0187,0.0797,0.0597,-0.0157,-0.0911,0.0456,-0.0948,0.0240,-0.0997,-0.0792,-0.0884,0.0918,-0.0365,0.0646,0.0288,-0.0667,0.0383,-0.0790,0.2533,-0.0610,-0.3092,-0.2366,0.4401,-0.1378,0.0084,0.0886,0.0205,0.0242,0.3410,0.3502,-0.0841,-0.3590,-0.4915,-0.2766,-0.0411,0.0157,-0.0633,-0.0955,0.5137,0.2436,-0.1988,-0.2650,0.1675,0.0952,-0.0691,0.0147,-0.0804,0.0379,0.5038,0.2944,0.3931,-0.3186,-0.5698,-0.0262,0.0498,0.0530,0.0959,0.0321,0.5015,0.0654,-0.3104,-0.3750,0.2734,-0.0884,0.0976,-0.0808,-0.0991,0.0076,0.3095,0.0937,-0.0336,-0.4806,0.4588,0.3724,0.0364,-0.0820,-0.0116,0.0777,-0.0970,0.0088,-0.0111,-0.0406,-0.0166,-0.0064,0.0026,0.0698,-0.0735,0.0613,-0.0439,0.0832,-0.0508,0.0260,-0.0749,0.0376,0.0674,-0.0284
-0.0389,-0.0320,-0.0102,0.0993,0.0238,0.0599,-0.0328,0.0915,0.0945,-0.0770,-0.0673,-0.0642,-0.0730,0.0817,-0.0669,-0.0860,0.0989,-0.0705,0.0955,0.0188,-0.0470,-0.0851,0.5561,-0.0918,0.3797,-0.2107,-0.2420,-0.2607,0.0425,-0.0524,-0.0787,0.0360,0.2995,0.2979,-0.2612,-0.0618,0.3232,0.2276,0.0451,-0.0904,-0.0460,0.0357,-0.0508,-0.0061,-0.1440,0.1885,0.5313,-0.0872,0.0663,-0.0911,-0.0213,-0.0127,-0.2846,0.4486,0.5051,-0.2315,-0.3237,0.0185,0.0055,0.0433,-0.0184,-0.0207,-0.2218,0.2671,0.3583,-0.4644,-0.3853,-0.0472,-0.0156,0.0704,0.0753,-0.0286,0.4712,-0.1292,0.3222,-0.2047,-0.0785,-0.1818,-0.0267,-0.0624,-0.0202,0.0284,-0.0914,-0.0657,0.0158,0.1694,0.2813,-0.0895,-0.0844,0.0486,0.0915,-0.0223,0.0490,0.0802,-0.0464,0.0170,0.0847,0.0526,-0.0756,-0.0858
-0.0748,0.0544,-0.0047,0.0074,0.0240,-0.0327,-0.0643,0.0969,0.0446,0.0006,0.0899,0.0990,0.0357,0.0243,-0.0074,0.0690,-0.0798,0.0378,-0.0060,-0.0335,-0.0578,-0.0764,0.2252,0.4689,0.3316,0.4539,0.4796,-0.0600,-0.0656,-0.0734,0.0793,0.0480,0.2881,0.2750,-0.3038,-0.3264,-0.2372,0.3787,-0.0414,-0.0173,0.0022,-0.0212,-0.3487,-0.1319,0.5340,0.3738,-0.2771,-0.0061,0.0870,0.0982,0.0332,-0.0767,-0.4000,-0.0523,-0.3756,-0.3475,-0.2975,0.0559,0.0766,0.0261,-0.0630,0.0331,0.2229,-0.2090,0.4376,-0.0784,-0.3430,-0.0785,0.0805,0.0035,0.0643,-0.0735,0.4185,0.2828,0.5334,0.4269,-0.3838,-0.4715,0.0223,0.0316,-0.0612,0.0543,0.0418,-0.0187,0.0620,0.4056,0.4127,0.0955,-0.0125,-0.0198,-0.0714,0.0907,-0.0828,-0.0954,-0.0334,-0.0057,0.0081,0.0285,-0.0457,0.0261
0.0849,-0.0179,0.0861,-0.0046,0.0940,0.0682,-0.0629,-0.0327,-0.0100,-0.0895,0.0695,-0.0603,-0.0911,0.0986,-0.0077,-0.0024,-0.0993,0.0004,-0.0239,0.0611,-0.0359,-0.0038,0.4499,0.1758,0.3437,-0.3163,-0.1529,0.3289,0.0574,0.0847,0.0631,0.0058,0.3967,-0.3873,0.3025,-0.3644,-0.3918,-0.3653,-0.0335,-0.0631,0.0402,-0.0226,0.2540,-0.3791,0.3028,0.0140,0.3827,0.0795,-0.0118,-0.0550,0.0445,-0.0051,0.3243,0.2779,-0.3901,-0.2110,-0.2953,0.0368,-0.0944,-0.0518,0.0054,0.1000,0.2413,0.3947,-0.4549,0.4012,0.1689,-0.0587,-0.0213,0.0676,-0.0547,0.0688,0.4384,0.3849,-0.4250,-0.2493,0.4978,0.5520,0.0953,0.0953,0.0846,-0.0731,0.0589,-0.0800,0.0592,-0.3518,-0.3841,0.0765,0.0482,0.0368,0.0525,0.0320,0.0276,0.0711,-0.0471,0.0130,0.0179,-0.0106,-0.0765,0.0223
0.0105,0.0236,-0.0068,0.0637,0.0634,-0.0512,-0.0850,-0.0360,0.0960,-0.0165,-0.0449,-0.0339,-0.0652,0.0657,-0.0269,0.0531,-0.0970,-0.0797,-0.0097,0.0864,-0.0404,-0.0778,0.3639,0.1983,-0.4401,0.1204,0.4189,0.3298,-0.0118,-0.0928,-0.0214,0.0996,-0.2175,0.1183,0.1861,0.5751,-0.0180,0.4227,0.0300,-0.0295,0.0500,0.0870,-0.3545,-0.1517,0.4565,0.5176,-0.0502,0.0645,-0.0207,-0.0988,0.0939,0.0745,-0.0936,-0.4839,0.4643,0.3360,0.3502,0.0215,0.0562,0.0610,-0.0805,-0.0410,0.2807,-0.4881,0.3840,0.5345,0.3583,-0.0758,0.0190,0.0003,0.0613,0.0115,0.3298,-0.0509,-0.3566,-0.2891,0.5059,0.4087,0.0853,-0.0112,-0.0265,0.0888,0.0364,-0.0925,0.0589,-0.4213,-0.3458,0.0687,-0.0529,0.0161,0.0653,0.0367,0.0944,-0.0062,-0.0545,0.0334,0.0717,0.0030,-0.0445,0.0419
0.0812,-0.0214,0.0425,-0.0848,0.0052,0.0007,-0.0575,-0.0696,-0.0452,0.0935,0.0958,0.0251,-0.0062,0.0632,-0.0511,-0.0624,-0.0437,-0.0741,-0.0206,0.0195,0.0478,0.0578,0.0380,-0.0468,-0.0553,0.0330,-0.0825,-0.0912,0.0079,0.0111,-0.0778,-0.0796,0.0678,0.0005,-0.0029,0.0300,0.0307,-0.0950,0.0752,-0.0745,0.0473,-0.0154,-0.0089,-0.0100,-0.0577,0.0025,-0.0788,0.0978,0.0987,-0.0522,0.0114,0.0581,-0.0100,-0.0431,0.0335,0.0665,0.0306,-0.0736,-0.0919,-0.0135,0.0077,-0.0078,-0.0605,-0.0206,0.0674,0.0499,-0.1109,0.0820,-0.0090,0.0881,0.0696,0.0706,-0.0487,0.0044,-0.0696,0.0017,-0.0778,0.0420,0.0496,-0.0304,-0.0454,-0.0867,-0.0699,-0.0111,0.0173,-0.0233,-0.0520,-0.0097,-0.0103,-0.0749,0.0189,0.0857,-0.0755,0.0595,-0.0884,0.0249,-0.0238,-0.0256,0.0679,0.0229
0.0331,0.0524,0.0376,0.0437,0.0744,-0.0014,0.0449,0.0734,-0.0844,-0.0456,-0.0558,-0.0249,-0.0606,-0.0474,0.0094,-0.0007,-0.0157,-0.0202,0.0405,0.0178,0.0522,0.0820,0.2372,-0.0519,-0.0897,-0.3570,0.3868,0.4698,0.0264,-0.0723,0.0213,0.0817,0.2406,0.0852,0.4001,-0.3496,0.5327,0.3176,0.0044,0.0864,0.0532,-0.0900,0.0383,-0.2419,0.4008,-0.1276,0.5358,-0.0189,-0.0530,-0.0324,-0.0319,-0.0574,-0.1810,-0.2675,-0.1658,0.1512,0.2103,-0.0276,-0.0700,0.0338,0.0274,0.0033,-0.2618,0.1666,0.3427,0.3387,-0.1359,-0.0036,-0.0291,0.0661,-0.0101,0.0537,-0.4470,0.2802,-0.4992,0.1357,0.3626,0.0771,-0.0246,-0.0930,0.0135,-0.0935,-0.0495,0.0737,0.0686,0.5311,0.5573,-0.0486,-0.0740,-0.0345,-0.0917,-0.0965,-0.0366,0.0968,-0.0429,-0.0676,0.0646,0.0893,0.0376,0.0396
